<?xml version="1.0" encoding="UTF-8" standalone="yes"?>
<PMML xmlns="http://www.dmg.org/PMML-4_4" xmlns:data="http://jpmml.org/jpmml-model/InlineTable" version="4.4">
	<Header>
		<Application name="SkLearn2PMML package" version="0.86.2"/>
		<Timestamp>2022-09-19T08:41:49Z</Timestamp>
	</Header>
	<MiningBuildTask>
		<Extension name="repr">PMMLPipeline(steps=[('classifier', DecisionTreeClassifier())])</Extension>
	</MiningBuildTask>
	<DataDictionary>
		<DataField name="BEHAVIOR" optype="categorical" dataType="string">
			<Value value="ENGAGED"/>
			<Value value="NOT ENGAGED"/>
		</DataField>
		<DataField name="x1" optype="continuous" dataType="float"/>
		<DataField name="x2" optype="continuous" dataType="float"/>
		<DataField name="x3" optype="continuous" dataType="float"/>
		<DataField name="x4" optype="continuous" dataType="float"/>
	</DataDictionary>
	<TreeModel functionName="classification" algorithmName="sklearn.tree._classes.DecisionTreeClassifier" missingValueStrategy="nullPrediction">
		<MiningSchema>
			<MiningField name="BEHAVIOR" usageType="target"/>
			<MiningField name="x2"/>
			<MiningField name="x4"/>
			<MiningField name="x1"/>
			<MiningField name="x3"/>
		</MiningSchema>
		<Output>
			<OutputField name="probability(ENGAGED)" optype="continuous" dataType="double" feature="probability" value="ENGAGED"/>
			<OutputField name="probability(NOT ENGAGED)" optype="continuous" dataType="double" feature="probability" value="NOT ENGAGED"/>
		</Output>
		<LocalTransformations>
			<DerivedField name="double(x2)" optype="continuous" dataType="double">
				<FieldRef field="x2"/>
			</DerivedField>
			<DerivedField name="double(x4)" optype="continuous" dataType="double">
				<FieldRef field="x4"/>
			</DerivedField>
			<DerivedField name="double(x1)" optype="continuous" dataType="double">
				<FieldRef field="x1"/>
			</DerivedField>
			<DerivedField name="double(x3)" optype="continuous" dataType="double">
				<FieldRef field="x3"/>
			</DerivedField>
		</LocalTransformations>
		<Node>
			<True/>
			<Node>
				<SimplePredicate field="double(x2)" operator="lessOrEqual" value="2.5"/>
				<Node>
					<SimplePredicate field="double(x4)" operator="lessOrEqual" value="2.5"/>
					<Node score="ENGAGED" recordCount="17">
						<SimplePredicate field="double(x1)" operator="lessOrEqual" value="0.5"/>
						<ScoreDistribution value="ENGAGED" recordCount="17"/>
						<ScoreDistribution value="NOT ENGAGED" recordCount="0"/>
					</Node>
					<Node>
						<SimplePredicate field="double(x4)" operator="lessOrEqual" value="1.5"/>
						<Node>
							<SimplePredicate field="double(x3)" operator="lessOrEqual" value="1.5"/>
							<Node score="ENGAGED" recordCount="3">
								<SimplePredicate field="double(x2)" operator="lessOrEqual" value="1.5"/>
								<ScoreDistribution value="ENGAGED" recordCount="2"/>
								<ScoreDistribution value="NOT ENGAGED" recordCount="1"/>
							</Node>
							<Node score="ENGAGED" recordCount="1">
								<True/>
								<ScoreDistribution value="ENGAGED" recordCount="1"/>
								<ScoreDistribution value="NOT ENGAGED" recordCount="0"/>
							</Node>
						</Node>
						<Node score="ENGAGED" recordCount="3">
							<True/>
							<ScoreDistribution value="ENGAGED" recordCount="3"/>
							<ScoreDistribution value="NOT ENGAGED" recordCount="0"/>
						</Node>
					</Node>
					<Node score="ENGAGED" recordCount="1">
						<SimplePredicate field="double(x3)" operator="lessOrEqual" value="1.5"/>
						<ScoreDistribution value="ENGAGED" recordCount="1"/>
						<ScoreDistribution value="NOT ENGAGED" recordCount="0"/>
					</Node>
					<Node score="NOT ENGAGED" recordCount="3">
						<True/>
						<ScoreDistribution value="ENGAGED" recordCount="0"/>
						<ScoreDistribution value="NOT ENGAGED" recordCount="3"/>
					</Node>
				</Node>
				<Node score="NOT ENGAGED" recordCount="6">
					<True/>
					<ScoreDistribution value="ENGAGED" recordCount="0"/>
					<ScoreDistribution value="NOT ENGAGED" recordCount="6"/>
				</Node>
			</Node>
			<Node score="NOT ENGAGED" recordCount="14">
				<True/>
				<ScoreDistribution value="ENGAGED" recordCount="0"/>
				<ScoreDistribution value="NOT ENGAGED" recordCount="14"/>
			</Node>
		</Node>
	</TreeModel>
</PMML>
